################################################################################
# Neural network connection values (weights and biases).
################################################################################
# Col  Name       Description
################################################################################
# 1    connection Neural network connection value.
# 2    t          Connection type (a = weight, b = bias).
# 3    index      Index enumerating weights.
# 4    l_s        Starting point layer (end point layer for biases).
# 5    n_s        Starting point neuron in starting layer (end point neuron for biases).
# 6    l_e        End point layer.
# 7    n_e        End point neuron in end layer.
################################################################################
#                      1 2         3     4     5     6     7
#             connection t     index   l_s   n_s   l_e   n_e
############################################################
-0.6464383602142334      a       1     0    1    1    1
0.7162672877311707      a       2     0    1    1    2
-0.3442545235157013      a       3     0    1    1    3
0.45277488231658936      a       4     0    1    1    4
-0.008047694340348244      a       5     0    2    1    1
0.1393791288137436      a       6     0    2    1    2
-0.2847433388233185      a       7     0    2    1    3
-0.8478098511695862      a       8     0    2    1    4
-0.7802727222442627      a       9     0    3    1    1
0.3244033753871918      a       10     0    3    1    2
-0.7739078998565674      a       11     0    3    1    3
-0.656069815158844      a       12     0    3    1    4
0.6388306617736816      a       13     1    1    2    1
-0.3373694121837616      a       14     1    1    2    2
0.7840363383293152      a       15     1    1    2    3
-0.1970270425081253      a       16     1    1    2    4
0.49498194456100464      a       17     1    1    2    5
-0.23863546550273895      a       18     1    2    2    1
-0.10287218540906906      a       19     1    2    2    2
0.2549571990966797      a       20     1    2    2    3
0.7598664164543152      a       21     1    2    2    4
0.7061325311660767      a       22     1    2    2    5
-0.0545748695731163      a       23     1    3    2    1
-0.10777314752340317      a       24     1    3    2    2
0.2903647720813751      a       25     1    3    2    3
0.24608132243156433      a       26     1    3    2    4
0.2822412848472595      a       27     1    3    2    5
-0.3803505301475525      a       28     1    4    2    1
-0.765835165977478      a       29     1    4    2    2
-0.6173617243766785      a       30     1    4    2    3
0.5463554859161377      a       31     1    4    2    4
0.7169557809829712      a       32     1    4    2    5
-0.5589320659637451      a       33     2    1    3    1
0.6574608087539673      a       34     2    2    3    1
0.9627512693405151      a       35     2    3    3    1
0.07842302322387695      a       36     2    4    3    1
0.6712348461151123      a       37     2    5    3    1
